Language model created by QuickLM on Fri Mar 27 08:26:47 EDT 2020
Copyright (c) 1996-2010 Carnegie Mellon University and Alexander I. Rudnicky

The model is in standard ARPA format, designed by Doug Paul while he was at MITRE.

The code that was used to produce this language model is available in Open Source.
Please visit http://www.speech.cs.cmu.edu/tools/ for more information

The (fixed) discount mass is 0.5. The backoffs are computed using the ratio method.
This model based on a corpus of 15 sentences and 29 words

\data\
ngram 1=29
ngram 2=46
ngram 3=40

\1-grams:
-0.9942 </s> -0.3010
-0.9942 <s> -0.2513
-2.1703 AGE -0.2546
-1.8692 ARE -0.2831
-2.1703 AWAY -0.2546
-1.8692 CAN -0.2831
-2.1703 CYNTHIA -0.2546
-2.1703 DO -0.2546
-2.1703 GO -0.2981
-2.1703 GOODBYE -0.2546
-2.1703 HELLO -0.2546
-2.1703 HELP -0.2981
-2.1703 HI -0.2546
-1.8692 HOW -0.2921
-1.4713 IS -0.2861
-2.1703 IT -0.2546
-2.1703 ME -0.2546
-2.1703 MEET -0.2831
-2.1703 NAME -0.2546
-2.1703 NICE -0.2981
-2.1703 NIKI -0.2546
-2.1703 OLD -0.2951
-2.1703 THANK -0.2831
-2.1703 TIME -0.2861
-2.1703 TO -0.2981
-1.5682 WHAT -0.2769
-1.8692 WHO -0.2861
-1.3921 YOU -0.2480
-1.8692 YOUR -0.2951

\2-grams:
-1.4771 <s> CAN 0.0000
-1.4771 <s> GO 0.0000
-1.4771 <s> GOODBYE 0.0000
-1.4771 <s> HELLO 0.0000
-1.4771 <s> HI 0.0000
-1.1761 <s> HOW 0.0000
-1.4771 <s> NICE 0.0000
-1.4771 <s> THANK 0.0000
-0.8751 <s> WHAT 0.0000
-1.1761 <s> WHO 0.0000
-0.3010 AGE </s> -0.3010
-0.3010 ARE YOU -0.1249
-0.3010 AWAY </s> -0.3010
-0.3010 CAN YOU -0.2218
-0.3010 CYNTHIA </s> -0.3010
-0.3010 DO </s> -0.3010
-0.3010 GO AWAY 0.0000
-0.3010 GOODBYE </s> -0.3010
-0.3010 HELLO </s> -0.3010
-0.3010 HELP ME 0.0000
-0.3010 HI </s> -0.3010
-0.6021 HOW ARE 0.0000
-0.6021 HOW OLD 0.0000
-1.0000 IS CYNTHIA 0.0000
-1.0000 IS IT 0.0000
-1.0000 IS NIKI 0.0000
-0.6990 IS YOUR 0.0000
-0.3010 IT </s> -0.3010
-0.3010 ME </s> -0.3010
-0.3010 MEET YOU -0.1249
-0.3010 NAME </s> -0.3010
-0.3010 NICE TO 0.0000
-0.3010 NIKI </s> -0.3010
-0.3010 OLD ARE 0.0000
-0.3010 THANK YOU -0.1249
-0.3010 TIME IS -0.2553
-0.3010 TO MEET 0.0000
-0.9031 WHAT CAN 0.0000
-0.6021 WHAT IS -0.2041
-0.9031 WHAT TIME 0.0000
-0.3010 WHO IS -0.2041
-0.4771 YOU </s> -0.3010
-1.0792 YOU DO 0.0000
-1.0792 YOU HELP 0.0000
-0.6021 YOUR AGE 0.0000
-0.6021 YOUR NAME 0.0000

\3-grams:
-0.3010 <s> CAN YOU
-0.3010 <s> GO AWAY
-0.3010 <s> GOODBYE </s>
-0.3010 <s> HELLO </s>
-0.3010 <s> HI </s>
-0.6021 <s> HOW ARE
-0.6021 <s> HOW OLD
-0.3010 <s> NICE TO
-0.3010 <s> THANK YOU
-0.9031 <s> WHAT CAN
-0.6021 <s> WHAT IS
-0.9031 <s> WHAT TIME
-0.3010 <s> WHO IS
-0.3010 ARE YOU </s>
-0.6021 CAN YOU DO
-0.6021 CAN YOU HELP
-0.3010 GO AWAY </s>
-0.3010 HELP ME </s>
-0.3010 HOW ARE YOU
-0.3010 HOW OLD ARE
-0.3010 IS CYNTHIA </s>
-0.3010 IS IT </s>
-0.3010 IS NIKI </s>
-0.6021 IS YOUR AGE
-0.6021 IS YOUR NAME
-0.3010 MEET YOU </s>
-0.3010 NICE TO MEET
-0.3010 OLD ARE YOU
-0.3010 THANK YOU </s>
-0.3010 TIME IS IT
-0.3010 TO MEET YOU
-0.3010 WHAT CAN YOU
-0.3010 WHAT IS YOUR
-0.3010 WHAT TIME IS
-0.6021 WHO IS CYNTHIA
-0.6021 WHO IS NIKI
-0.3010 YOU DO </s>
-0.3010 YOU HELP ME
-0.3010 YOUR AGE </s>
-0.3010 YOUR NAME </s>

\end\
